<?xml version="1.0"?>
<opencv_storage>
<cascade>
  <stageType>BOOST</stageType>
  <featureType>HAAR</featureType>
  <height>32</height>
  <width>32</width>
  <stageParams>
    <boostType>GAB</boostType>
    <minHitRate>9.9500000476837158e-01</minHitRate>
    <maxFalseAlarm>5.0000000000000000e-01</maxFalseAlarm>
    <weightTrimRate>9.4999998807907104e-01</weightTrimRate>
    <maxDepth>1</maxDepth>
    <maxWeakCount>100</maxWeakCount></stageParams>
  <featureParams>
    <maxCatCount>0</maxCatCount>
    <featSize>1</featSize>
    <mode>BASIC</mode></featureParams>
  <stageNum>15</stageNum>
  <stages>
    <!-- stage 0 -->
    <_>
      <maxWeakCount>6</maxWeakCount>
      <stageThreshold>-1.3981410264968872e+00</stageThreshold>
      <weakClassifiers>
        <_>
          <internalNodes>
            0 -1 37 8.0793127417564392e-03</internalNodes>
          <leafValues>
            -8.9618021249771118e-01 -1.2280701845884323e-01</leafValues></_>
        <_>
          <internalNodes>
            0 -1 55 5.0165741704404354e-03</internalNodes>
          <leafValues>
            -6.2397003173828125e-01 2.7677807211875916e-01</leafValues></_>
        <_>
          <internalNodes>
            0 -1 70 2.0604650489985943e-03</internalNodes>
          <leafValues>
            -3.7909448146820068e-01 4.7316166758537292e-01</leafValues></_>
        <_>
          <internalNodes>
            0 -1 65 -9.5148850232362747e-04</internalNodes>
          <leafValues>
            6.8519961833953857e-01 -2.5201773643493652e-01</leafValues></_>
        <_>
          <internalNodes>
            0 -1 3 -9.0908994025085121e-05</internalNodes>
          <leafValues>
            -5.6029105186462402e-01 3.1601753830909729e-01</leafValues></_>
        <_>
          <internalNodes>
            0 -1 93 -1.2831557542085648e-03</internalNodes>
          <leafValues>
            6.0365003347396851e-01 -3.1221690773963928e-01</leafValues></_></weakClassifiers></_>
    <!-- stage 1 -->
    <_>
      <maxWeakCount>7</maxWeakCount>
      <stageThreshold>-2.0307590961456299e+00</stageThreshold>
      <weakClassifiers>
        <_>
          <internalNodes>
            0 -1 79 -7.1565538644790649e-02</internalNodes>
          <leafValues>
            8.0000001192092896e-01 -8.7078648805618286e-01</leafValues></_>
        <_>
          <internalNodes>
            0 -1 92 -1.4191361144185066e-02</internalNodes>
          <leafValues>
            1.1427263915538788e-01 -6.1578643321990967e-01</leafValues></_>
        <_>
          <internalNodes>
            0 -1 23 8.6719974875450134e-02</internalNodes>
          <leafValues>
            1.2306208908557892e-01 -8.2863199710845947e-01</leafValues></_>
        <_>
          <internalNodes>
            0 -1 72 -2.7392748743295670e-03</internalNodes>
          <leafValues>
            -8.8589465618133545e-01 9.8565123975276947e-02</leafValues></_>
        <_>
          <internalNodes>
            0 -1 18 1.6599444206804037e-03</internalNodes>
          <leafValues>
            1.4471268653869629e-01 -8.7396311759948730e-01</leafValues></_>
        <_>
          <internalNodes>
            0 -1 46 2.3116599186323583e-04</internalNodes>
          <leafValues>
            -3.8160988688468933e-01 3.2795351743698120e-01</leafValues></_>
        <_>
          <internalNodes>
            0 -1 60 -5.2491517271846533e-04</internalNodes>
          <leafValues>
            4.2277801036834717e-01 -3.5671183466911316e-01</leafValues></_></weakClassifiers></_>
    <!-- stage 2 -->
    <_>
      <maxWeakCount>6</maxWeakCount>
      <stageThreshold>-1.4802989959716797e+00</stageThreshold>
      <weakClassifiers>
        <_>
          <internalNodes>
            0 -1 88 -3.3586718142032623e-02</internalNodes>
          <leafValues>
            7.7777779102325439e-01 -8.6903649568557739e-01</leafValues></_>
        <_>
          <internalNodes>
            0 -1 48 -5.4838339565321803e-05</internalNodes>
          <leafValues>
            -4.1430067270994186e-02 -7.3856669664382935e-01</leafValues></_>
        <_>
          <internalNodes>
            0 -1 14 2.0248575310688466e-05</internalNodes>
          <leafValues>
            -4.7851678729057312e-01 2.5236183404922485e-01</leafValues></_>
        <_>
          <internalNodes>
            0 -1 33 -2.9728305526077747e-03</internalNodes>
          <leafValues>
            4.1163599491119385e-01 -3.5734313726425171e-01</leafValues></_>
        <_>
          <internalNodes>
            0 -1 63 3.8534114137291908e-03</internalNodes>
          <leafValues>
            -3.2853984832763672e-01 4.0899053215980530e-01</leafValues></_>
        <_>
          <internalNodes>
            0 -1 54 -9.9495932459831238e-02</internalNodes>
          <leafValues>
            7.5220149755477905e-01 -1.3631124794483185e-01</leafValues></_></weakClassifiers></_>
    <!-- stage 3 -->
    <_>
      <maxWeakCount>6</maxWeakCount>
      <stageThreshold>-1.8166145086288452e+00</stageThreshold>
      <weakClassifiers>
        <_>
          <internalNodes>
            0 -1 90 -8.2953870296478271e-03</internalNodes>
          <leafValues>
            1.8181818723678589e-01 -8.7689393758773804e-01</leafValues></_>
        <_>
          <internalNodes>
            0 -1 104 -2.2222578991204500e-05</internalNodes>
          <leafValues>
            -5.1426272839307785e-02 -6.8776005506515503e-01</leafValues></_>
        <_>
          <internalNodes>
            0 -1 107 -4.2127190681640059e-05</internalNodes>
          <leafValues>
            3.1844359636306763e-01 -4.3321979045867920e-01</leafValues></_>
        <_>
          <internalNodes>
            0 -1 19 -9.0664862000267021e-06</internalNodes>
          <leafValues>
            3.9802592992782593e-01 -3.9311948418617249e-01</leafValues></_>
        <_>
          <internalNodes>
            0 -1 42 9.9635990409296937e-06</internalNodes>
          <leafValues>
            -3.6954852938652039e-01 3.8271802663803101e-01</leafValues></_>
        <_>
          <internalNodes>
            0 -1 78 2.1939571015536785e-03</internalNodes>
          <leafValues>
            -4.4467306137084961e-01 3.4394544363021851e-01</leafValues></_></weakClassifiers></_>
    <!-- stage 4 -->
    <_>
      <maxWeakCount>6</maxWeakCount>
      <stageThreshold>-1.4886879920959473e+00</stageThreshold>
      <weakClassifiers>
        <_>
          <internalNodes>
            0 -1 76 -4.0633268654346466e-03</internalNodes>
          <leafValues>
            4.7826087474822998e-01 -8.8436019420623779e-01</leafValues></_>
        <_>
          <internalNodes>
            0 -1 97 3.3154967240989208e-04</internalNodes>
          <leafValues>
            -5.9704309701919556e-01 3.8644841313362122e-01</leafValues></_>
        <_>
          <internalNodes>
            0 -1 77 -2.2366552002495155e-05</internalNodes>
          <leafValues>
            4.1887003183364868e-01 -4.3799006938934326e-01</leafValues></_>
        <_>
          <internalNodes>
            0 -1 100 1.0125782864633948e-04</internalNodes>
          <leafValues>
            -3.5097703337669373e-01 5.5014741420745850e-01</leafValues></_>
        <_>
          <internalNodes>
            0 -1 28 -1.8965671188198030e-05</internalNodes>
          <leafValues>
            4.3724596500396729e-01 -4.1174826025962830e-01</leafValues></_>
        <_>
          <internalNodes>
            0 -1 40 4.8960842832457274e-05</internalNodes>
          <leafValues>
            -5.1242369413375854e-01 3.4854286909103394e-01</leafValues></_></weakClassifiers></_>
    <!-- stage 5 -->
    <_>
      <maxWeakCount>6</maxWeakCount>
      <stageThreshold>-1.7187083959579468e+00</stageThreshold>
      <weakClassifiers>
        <_>
          <internalNodes>
            0 -1 20 -9.5668703317642212e-02</internalNodes>
          <leafValues>
            5.0000000000000000e-01 -8.7570619583129883e-01</leafValues></_>
        <_>
          <internalNodes>
            0 -1 9 1.1687027290463448e-03</internalNodes>
          <leafValues>
            -2.7544105052947998e-01 -9.3254554271697998e-01</leafValues></_>
        <_>
          <internalNodes>
            0 -1 57 -6.3122453866526484e-04</internalNodes>
          <leafValues>
            -9.7736537456512451e-01 5.6063018739223480e-02</leafValues></_>
        <_>
          <internalNodes>
            0 -1 41 2.0092297927476466e-04</internalNodes>
          <leafValues>
            1.3697679340839386e-01 -7.7663594484329224e-01</leafValues></_>
        <_>
          <internalNodes>
            0 -1 27 -2.2928062826395035e-03</internalNodes>
          <leafValues>
            -9.0381962060928345e-01 1.2880562245845795e-01</leafValues></_>
        <_>
          <internalNodes>
            0 -1 73 1.3628773158416152e-03</internalNodes>
          <leafValues>
            1.4321872591972351e-01 -7.4837833642959595e-01</leafValues></_></weakClassifiers></_>
    <!-- stage 6 -->
    <_>
      <maxWeakCount>7</maxWeakCount>
      <stageThreshold>-1.4708676338195801e+00</stageThreshold>
      <weakClassifiers>
        <_>
          <internalNodes>
            0 -1 68 1.1094728112220764e-01</internalNodes>
          <leafValues>
            -8.6741364002227783e-01 1.</leafValues></_>
        <_>
          <internalNodes>
            0 -1 80 -1.2475054245442152e-03</internalNodes>
          <leafValues>
            -9.6217179298400879e-01 -2.8042784333229065e-01</leafValues></_>
        <_>
          <internalNodes>
            0 -1 24 6.1099405866116285e-04</internalNodes>
          <leafValues>
            9.3443974852561951e-02 -7.9653519392013550e-01</leafValues></_>
        <_>
          <internalNodes>
            0 -1 25 2.0184474997222424e-03</internalNodes>
          <leafValues>
            1.4513510465621948e-01 -7.7939605712890625e-01</leafValues></_>
        <_>
          <internalNodes>
            0 -1 81 1.4762702630832791e-03</internalNodes>
          <leafValues>
            1.5583124756813049e-01 -7.3889058828353882e-01</leafValues></_>
        <_>
          <internalNodes>
            0 -1 87 -1.0732230730354786e-03</internalNodes>
          <leafValues>
            -7.9996275901794434e-01 1.1404322832822800e-01</leafValues></_>
        <_>
          <internalNodes>
            0 -1 102 -2.6911112945526838e-03</internalNodes>
          <leafValues>
            -9.8402750492095947e-01 9.3051508069038391e-02</leafValues></_></weakClassifiers></_>
    <!-- stage 7 -->
    <_>
      <maxWeakCount>8</maxWeakCount>
      <stageThreshold>-1.5617125034332275e+00</stageThreshold>
      <weakClassifiers>
        <_>
          <internalNodes>
            0 -1 49 -1.1311037838459015e-01</internalNodes>
          <leafValues>
            1. -8.6393290758132935e-01</leafValues></_>
        <_>
          <internalNodes>
            0 -1 85 -3.9220843464136124e-03</internalNodes>
          <leafValues>
            9.5971636474132538e-02 -5.4902356863021851e-01</leafValues></_>
        <_>
          <internalNodes>
            0 -1 75 -2.5072798598557711e-03</internalNodes>
          <leafValues>
            -9.2691826820373535e-01 6.5905131399631500e-02</leafValues></_>
        <_>
          <internalNodes>
            0 -1 16 -1.5034928219392896e-03</internalNodes>
          <leafValues>
            3.1392103433609009e-01 -3.2791948318481445e-01</leafValues></_>
        <_>
          <internalNodes>
            0 -1 22 4.2356178164482117e-03</internalNodes>
          <leafValues>
            9.7919605672359467e-02 -9.1718614101409912e-01</leafValues></_>
        <_>
          <internalNodes>
            0 -1 61 4.4067795388400555e-03</internalNodes>
          <leafValues>
            -1.9740080833435059e-01 5.6573688983917236e-01</leafValues></_>
        <_>
          <internalNodes>
            0 -1 35 -3.5510404268279672e-04</internalNodes>
          <leafValues>
            -6.2916672229766846e-01 1.5632934868335724e-01</leafValues></_>
        <_>
          <internalNodes>
            0 -1 11 1.3672910630702972e-01</internalNodes>
          <leafValues>
            -2.3760209977626801e-01 4.8493036627769470e-01</leafValues></_></weakClassifiers></_>
    <!-- stage 8 -->
    <_>
      <maxWeakCount>8</maxWeakCount>
      <stageThreshold>-1.5916297435760498e+00</stageThreshold>
      <weakClassifiers>
        <_>
          <internalNodes>
            0 -1 82 -9.5442034304141998e-02</internalNodes>
          <leafValues>
            7.5000000000000000e-01 -8.6728972196578979e-01</leafValues></_>
        <_>
          <internalNodes>
            0 -1 58 -1.3003706932067871e-01</internalNodes>
          <leafValues>
            5.8138817548751831e-01 -4.9636465311050415e-01</leafValues></_>
        <_>
          <internalNodes>
            0 -1 36 2.5922483764588833e-03</internalNodes>
          <leafValues>
            7.7080383896827698e-02 -9.5412266254425049e-01</leafValues></_>
        <_>
          <internalNodes>
            0 -1 83 -8.5251256823539734e-03</internalNodes>
          <leafValues>
            3.2589948177337646e-01 -3.3199349045753479e-01</leafValues></_>
        <_>
          <internalNodes>
            0 -1 103 2.3442287056241184e-04</internalNodes>
          <leafValues>
            -3.7373840808868408e-01 2.9373151063919067e-01</leafValues></_>
        <_>
          <internalNodes>
            0 -1 91 -5.5087227374315262e-03</internalNodes>
          <leafValues>
            6.2310993671417236e-01 -2.1159358322620392e-01</leafValues></_>
        <_>
          <internalNodes>
            0 -1 39 -5.7584955357015133e-04</internalNodes>
          <leafValues>
            3.8648846745491028e-01 -3.0953773856163025e-01</leafValues></_>
        <_>
          <internalNodes>
            0 -1 38 1.4672349789179862e-04</internalNodes>
          <leafValues>
            -3.9758783578872681e-01 2.6391449570655823e-01</leafValues></_></weakClassifiers></_>
    <!-- stage 9 -->
    <_>
      <maxWeakCount>9</maxWeakCount>
      <stageThreshold>-1.6913868188858032e+00</stageThreshold>
      <weakClassifiers>
        <_>
          <internalNodes>
            0 -1 67 -5.2286460995674133e-02</internalNodes>
          <leafValues>
            7.1428573131561279e-01 -8.6554622650146484e-01</leafValues></_>
        <_>
          <internalNodes>
            0 -1 50 3.8099959492683411e-03</internalNodes>
          <leafValues>
            -5.0480675697326660e-01 3.1011649966239929e-01</leafValues></_>
        <_>
          <internalNodes>
            0 -1 105 -1.6940205823630095e-03</internalNodes>
          <leafValues>
            -6.3652020692825317e-01 1.2500827014446259e-01</leafValues></_>
        <_>
          <internalNodes>
            0 -1 17 7.1791540831327438e-03</internalNodes>
          <leafValues>
            8.1676967442035675e-02 -9.2565786838531494e-01</leafValues></_>
        <_>
          <internalNodes>
            0 -1 21 4.8840446397662163e-03</internalNodes>
          <leafValues>
            9.7790308296680450e-02 -1.</leafValues></_>
        <_>
          <internalNodes>
            0 -1 8 7.2033453034237027e-04</internalNodes>
          <leafValues>
            -2.2490012645721436e-01 4.9507090449333191e-01</leafValues></_>
        <_>
          <internalNodes>
            0 -1 86 4.2827631114050746e-04</internalNodes>
          <leafValues>
            2.0796629786491394e-01 -4.9914488196372986e-01</leafValues></_>
        <_>
          <internalNodes>
            0 -1 84 2.8426861390471458e-03</internalNodes>
          <leafValues>
            -3.4080854058265686e-01 3.7386879324913025e-01</leafValues></_>
        <_>
          <internalNodes>
            0 -1 66 6.5886406227946281e-03</internalNodes>
          <leafValues>
            -2.2091591358184814e-01 5.4593759775161743e-01</leafValues></_></weakClassifiers></_>
    <!-- stage 10 -->
    <_>
      <maxWeakCount>8</maxWeakCount>
      <stageThreshold>-1.5596399307250977e+00</stageThreshold>
      <weakClassifiers>
        <_>
          <internalNodes>
            0 -1 74 -1.1494282633066177e-01</internalNodes>
          <leafValues>
            1. -8.6393290758132935e-01</leafValues></_>
        <_>
          <internalNodes>
            0 -1 101 2.6224392931908369e-03</internalNodes>
          <leafValues>
            -5.2554410696029663e-01 2.3318162560462952e-01</leafValues></_>
        <_>
          <internalNodes>
            0 -1 59 1.0952091543003917e-03</internalNodes>
          <leafValues>
            4.8494853079319000e-02 -9.2255055904388428e-01</leafValues></_>
        <_>
          <internalNodes>
            0 -1 32 -1.4765141531825066e-03</internalNodes>
          <leafValues>
            4.8068854212760925e-01 -1.6786828637123108e-01</leafValues></_>
        <_>
          <internalNodes>
            0 -1 6 -5.7783434167504311e-03</internalNodes>
          <leafValues>
            -8.4994232654571533e-01 1.0512528568506241e-01</leafValues></_>
        <_>
          <internalNodes>
            0 -1 96 2.0099764515180141e-04</internalNodes>
          <leafValues>
            -2.5655144453048706e-01 3.5524210333824158e-01</leafValues></_>
        <_>
          <internalNodes>
            0 -1 13 -9.8886206746101379e-02</internalNodes>
          <leafValues>
            7.4763798713684082e-01 -1.4455398917198181e-01</leafValues></_>
        <_>
          <internalNodes>
            0 -1 12 -1.7524178838357329e-03</internalNodes>
          <leafValues>
            -3.8356783986091614e-01 2.4519066512584686e-01</leafValues></_></weakClassifiers></_>
    <!-- stage 11 -->
    <_>
      <maxWeakCount>10</maxWeakCount>
      <stageThreshold>-1.6577430963516235e+00</stageThreshold>
      <weakClassifiers>
        <_>
          <internalNodes>
            0 -1 47 1.5239930711686611e-02</internalNodes>
          <leafValues>
            -8.6380594968795776e-01 6.6666668653488159e-01</leafValues></_>
        <_>
          <internalNodes>
            0 -1 95 2.7417461387813091e-03</internalNodes>
          <leafValues>
            -5.5895692110061646e-01 7.5494468212127686e-02</leafValues></_>
        <_>
          <internalNodes>
            0 -1 7 -1.6252370551228523e-03</internalNodes>
          <leafValues>
            -7.3443073034286499e-01 7.8891098499298096e-02</leafValues></_>
        <_>
          <internalNodes>
            0 -1 29 2.3287128715310246e-04</internalNodes>
          <leafValues>
            -3.3482745289802551e-01 2.6982888579368591e-01</leafValues></_>
        <_>
          <internalNodes>
            0 -1 94 -1.0770736262202263e-02</internalNodes>
          <leafValues>
            -9.4425773620605469e-01 1.1545213311910629e-01</leafValues></_>
        <_>
          <internalNodes>
            0 -1 44 -1.0519776493310928e-02</internalNodes>
          <leafValues>
            3.7649542093276978e-01 -2.4680577218532562e-01</leafValues></_>
        <_>
          <internalNodes>
            0 -1 4 3.0018389225006104e-02</internalNodes>
          <leafValues>
            -3.0270999670028687e-01 3.3993840217590332e-01</leafValues></_>
        <_>
          <internalNodes>
            0 -1 51 -1.5865519642829895e-02</internalNodes>
          <leafValues>
            6.4119577407836914e-01 -1.5071135759353638e-01</leafValues></_>
        <_>
          <internalNodes>
            0 -1 109 -3.1932577257975936e-04</internalNodes>
          <leafValues>
            -6.3579881191253662e-01 1.7311424016952515e-01</leafValues></_>
        <_>
          <internalNodes>
            0 -1 69 7.0408880710601807e-03</internalNodes>
          <leafValues>
            -1.5503348410129547e-01 7.4202626943588257e-01</leafValues></_></weakClassifiers></_>
    <!-- stage 12 -->
    <_>
      <maxWeakCount>7</maxWeakCount>
      <stageThreshold>-1.6270246505737305e+00</stageThreshold>
      <weakClassifiers>
        <_>
          <internalNodes>
            0 -1 1 1.5223437920212746e-02</internalNodes>
          <leafValues>
            -8.6393290758132935e-01 1.</leafValues></_>
        <_>
          <internalNodes>
            0 -1 45 1.1392708402127028e-03</internalNodes>
          <leafValues>
            -6.4227050542831421e-01 -1.3429878652095795e-01</leafValues></_>
        <_>
          <internalNodes>
            0 -1 96 2.0133258658461273e-04</internalNodes>
          <leafValues>
            -3.0605903267860413e-01 3.0706959962844849e-01</leafValues></_>
        <_>
          <internalNodes>
            0 -1 106 -3.5506280255503953e-05</internalNodes>
          <leafValues>
            2.5378787517547607e-01 -3.5023775696754456e-01</leafValues></_>
        <_>
          <internalNodes>
            0 -1 5 7.3691476136445999e-03</internalNodes>
          <leafValues>
            -3.0774062871932983e-01 2.9303821921348572e-01</leafValues></_>
        <_>
          <internalNodes>
            0 -1 31 -2.0223689079284668e-01</internalNodes>
          <leafValues>
            -8.5100650787353516e-01 1.4466039836406708e-01</leafValues></_>
        <_>
          <internalNodes>
            0 -1 99 3.9903372526168823e-03</internalNodes>
          <leafValues>
            9.7776941955089569e-02 -8.7553077936172485e-01</leafValues></_></weakClassifiers></_>
    <!-- stage 13 -->
    <_>
      <maxWeakCount>10</maxWeakCount>
      <stageThreshold>-1.4221057891845703e+00</stageThreshold>
      <weakClassifiers>
        <_>
          <internalNodes>
            0 -1 0 1.3586584478616714e-02</internalNodes>
          <leafValues>
            -8.6393290758132935e-01 1.</leafValues></_>
        <_>
          <internalNodes>
            0 -1 56 -6.1711119487881660e-03</internalNodes>
          <leafValues>
            1.1142954230308533e-01 -5.2765518426895142e-01</leafValues></_>
        <_>
          <internalNodes>
            0 -1 108 3.3693681471049786e-03</internalNodes>
          <leafValues>
            6.2128938734531403e-02 -1.</leafValues></_>
        <_>
          <internalNodes>
            0 -1 30 8.7802787311375141e-04</internalNodes>
          <leafValues>
            -3.0440130829811096e-01 2.9415187239646912e-01</leafValues></_>
        <_>
          <internalNodes>
            0 -1 10 -1.1792584555223584e-03</internalNodes>
          <leafValues>
            -8.9579141139984131e-01 9.4214826822280884e-02</leafValues></_>
        <_>
          <internalNodes>
            0 -1 71 -3.0434294603765011e-04</internalNodes>
          <leafValues>
            4.4763392210006714e-01 -2.1082258224487305e-01</leafValues></_>
        <_>
          <internalNodes>
            0 -1 34 -3.1906473450362682e-03</internalNodes>
          <leafValues>
            -3.9247402548789978e-01 2.2301511466503143e-01</leafValues></_>
        <_>
          <internalNodes>
            0 -1 62 3.8346694782376289e-03</internalNodes>
          <leafValues>
            -3.0329078435897827e-01 3.3583962917327881e-01</leafValues></_>
        <_>
          <internalNodes>
            0 -1 43 5.7783140800893307e-04</internalNodes>
          <leafValues>
            1.6272719204425812e-01 -6.8382757902145386e-01</leafValues></_>
        <_>
          <internalNodes>
            0 -1 52 3.9070518687367439e-03</internalNodes>
          <leafValues>
            -1.8574948608875275e-01 5.9673839807510376e-01</leafValues></_></weakClassifiers></_>
    <!-- stage 14 -->
    <_>
      <maxWeakCount>7</maxWeakCount>
      <stageThreshold>-1.6420469284057617e+00</stageThreshold>
      <weakClassifiers>
        <_>
          <internalNodes>
            0 -1 64 1.1750948615372181e-02</internalNodes>
          <leafValues>
            -8.6542057991027832e-01 5.0000000000000000e-01</leafValues></_>
        <_>
          <internalNodes>
            0 -1 15 -1.6932681202888489e-02</internalNodes>
          <leafValues>
            -8.2762710750102997e-02 -6.4649581909179688e-01</leafValues></_>
        <_>
          <internalNodes>
            0 -1 89 7.8170336782932281e-03</internalNodes>
          <leafValues>
            -3.3126080036163330e-01 2.9019078612327576e-01</leafValues></_>
        <_>
          <internalNodes>
            0 -1 98 -2.1741096861660480e-03</internalNodes>
          <leafValues>
            2.9187306761741638e-01 -3.7547776103019714e-01</leafValues></_>
        <_>
          <internalNodes>
            0 -1 2 -9.8004881292581558e-03</internalNodes>
          <leafValues>
            3.5888499021530151e-01 -3.2540056109428406e-01</leafValues></_>
        <_>
          <internalNodes>
            0 -1 26 -1.0983122512698174e-02</internalNodes>
          <leafValues>
            6.2703627347946167e-01 -1.1979839950799942e-01</leafValues></_>
        <_>
          <internalNodes>
            0 -1 53 3.0734655447304249e-03</internalNodes>
          <leafValues>
            -2.2621171176433563e-01 4.2245423793792725e-01</leafValues></_></weakClassifiers></_></stages>
  <features>
    <_>
      <rects>
        <_>
          0 1 5 2 -1.</_>
        <_>
          0 2 5 1 2.</_></rects>
      <tilted>0</tilted></_>
    <_>
      <rects>
        <_>
          0 1 6 2 -1.</_>
        <_>
          0 2 6 1 2.</_></rects>
      <tilted>0</tilted></_>
    <_>
      <rects>
        <_>
          0 4 10 18 -1.</_>
        <_>
          0 4 5 9 2.</_>
        <_>
          5 13 5 9 2.</_></rects>
      <tilted>0</tilted></_>
    <_>
      <rects>
        <_>
          0 7 6 5 -1.</_>
        <_>
          3 7 3 5 2.</_></rects>
      <tilted>0</tilted></_>
    <_>
      <rects>
        <_>
          0 9 28 7 -1.</_>
        <_>
          14 9 14 7 2.</_></rects>
      <tilted>0</tilted></_>
    <_>
      <rects>
        <_>
          0 10 21 6 -1.</_>
        <_>
          0 12 21 2 3.</_></rects>
      <tilted>0</tilted></_>
    <_>
      <rects>
        <_>
          0 16 1 15 -1.</_>
        <_>
          0 21 1 5 3.</_></rects>
      <tilted>0</tilted></_>
    <_>
      <rects>
        <_>
          0 26 7 2 -1.</_>
        <_>
          0 27 7 1 2.</_></rects>
      <tilted>0</tilted></_>
    <_>
      <rects>
        <_>
          1 2 1 3 -1.</_>
        <_>
          1 3 1 1 3.</_></rects>
      <tilted>0</tilted></_>
    <_>
      <rects>
        <_>
          1 15 2 14 -1.</_>
        <_>
          1 15 1 7 2.</_>
        <_>
          2 22 1 7 2.</_></rects>
      <tilted>0</tilted></_>
    <_>
      <rects>
        <_>
          1 19 2 6 -1.</_>
        <_>
          1 19 1 3 2.</_>
        <_>
          2 22 1 3 2.</_></rects>
      <tilted>0</tilted></_>
    <_>
      <rects>
        <_>
          2 1 30 29 -1.</_>
        <_>
          12 1 10 29 3.</_></rects>
      <tilted>0</tilted></_>
    <_>
      <rects>
        <_>
          2 3 2 8 -1.</_>
        <_>
          2 7 2 4 2.</_></rects>
      <tilted>0</tilted></_>
    <_>
      <rects>
        <_>
          2 3 13 10 -1.</_>
        <_>
          2 8 13 5 2.</_></rects>
      <tilted>0</tilted></_>
    <_>
      <rects>
        <_>
          2 8 2 1 -1.</_>
        <_>
          3 8 1 1 2.</_></rects>
      <tilted>0</tilted></_>
    <_>
      <rects>
        <_>
          2 12 24 6 -1.</_>
        <_>
          2 15 24 3 2.</_></rects>
      <tilted>0</tilted></_>
    <_>
      <rects>
        <_>
          2 16 21 2 -1.</_>
        <_>
          2 17 21 1 2.</_></rects>
      <tilted>0</tilted></_>
    <_>
      <rects>
        <_>
          2 21 5 6 -1.</_>
        <_>
          2 23 5 2 3.</_></rects>
      <tilted>0</tilted></_>
    <_>
      <rects>
        <_>
          2 27 9 2 -1.</_>
        <_>
          2 28 9 1 2.</_></rects>
      <tilted>0</tilted></_>
    <_>
      <rects>
        <_>
          2 28 2 2 -1.</_>
        <_>
          2 28 1 1 2.</_>
        <_>
          3 29 1 1 2.</_></rects>
      <tilted>0</tilted></_>
    <_>
      <rects>
        <_>
          3 2 9 12 -1.</_>
        <_>
          3 8 9 6 2.</_></rects>
      <tilted>0</tilted></_>
    <_>
      <rects>
        <_>
          3 29 28 2 -1.</_>
        <_>
          3 29 14 1 2.</_>
        <_>
          17 30 14 1 2.</_></rects>
      <tilted>0</tilted></_>
    <_>
      <rects>
        <_>
          3 29 18 3 -1.</_>
        <_>
          3 30 18 1 3.</_></rects>
      <tilted>0</tilted></_>
    <_>
      <rects>
        <_>
          4 4 23 28 -1.</_>
        <_>
          4 18 23 14 2.</_></rects>
      <tilted>0</tilted></_>
    <_>
      <rects>
        <_>
          4 15 4 2 -1.</_>
        <_>
          4 15 2 1 2.</_>
        <_>
          6 16 2 1 2.</_></rects>
      <tilted>0</tilted></_>
    <_>
      <rects>
        <_>
          4 30 15 2 -1.</_>
        <_>
          4 31 15 1 2.</_></rects>
      <tilted>0</tilted></_>
    <_>
      <rects>
        <_>
          5 4 27 1 -1.</_>
        <_>
          14 4 9 1 3.</_></rects>
      <tilted>0</tilted></_>
    <_>
      <rects>
        <_>
          5 11 2 16 -1.</_>
        <_>
          5 11 1 8 2.</_>
        <_>
          6 19 1 8 2.</_></rects>
      <tilted>0</tilted></_>
    <_>
      <rects>
        <_>
          5 17 2 2 -1.</_>
        <_>
          5 17 1 1 2.</_>
        <_>
          6 18 1 1 2.</_></rects>
      <tilted>0</tilted></_>
    <_>
      <rects>
        <_>
          5 22 6 3 -1.</_>
        <_>
          5 23 6 1 3.</_></rects>
      <tilted>0</tilted></_>
    <_>
      <rects>
        <_>
          5 24 18 3 -1.</_>
        <_>
          5 25 18 1 3.</_></rects>
      <tilted>0</tilted></_>
    <_>
      <rects>
        <_>
          6 5 13 26 -1.</_>
        <_>
          6 18 13 13 2.</_></rects>
      <tilted>0</tilted></_>
    <_>
      <rects>
        <_>
          6 9 8 2 -1.</_>
        <_>
          6 9 4 1 2.</_>
        <_>
          10 10 4 1 2.</_></rects>
      <tilted>0</tilted></_>
    <_>
      <rects>
        <_>
          6 9 10 6 -1.</_>
        <_>
          6 9 5 3 2.</_>
        <_>
          11 12 5 3 2.</_></rects>
      <tilted>0</tilted></_>
    <_>
      <rects>
        <_>
          6 12 9 9 -1.</_>
        <_>
          6 15 9 3 3.</_></rects>
      <tilted>0</tilted></_>
    <_>
      <rects>
        <_>
          7 7 3 2 -1.</_>
        <_>
          8 7 1 2 3.</_></rects>
      <tilted>0</tilted></_>
    <_>
      <rects>
        <_>
          7 7 3 12 -1.</_>
        <_>
          8 7 1 12 3.</_></rects>
      <tilted>0</tilted></_>
    <_>
      <rects>
        <_>
          7 9 19 3 -1.</_>
        <_>
          7 10 19 1 3.</_></rects>
      <tilted>0</tilted></_>
    <_>
      <rects>
        <_>
          7 13 3 15 -1.</_>
        <_>
          8 13 1 15 3.</_></rects>
      <tilted>0</tilted></_>
    <_>
      <rects>
        <_>
          8 0 3 3 -1.</_>
        <_>
          8 1 3 1 3.</_></rects>
      <tilted>0</tilted></_>
    <_>
      <rects>
        <_>
          8 9 2 4 -1.</_>
        <_>
          9 9 1 4 2.</_></rects>
      <tilted>0</tilted></_>
    <_>
      <rects>
        <_>
          8 18 2 1 -1.</_>
        <_>
          9 18 1 1 2.</_></rects>
      <tilted>0</tilted></_>
    <_>
      <rects>
        <_>
          8 24 2 2 -1.</_>
        <_>
          8 24 1 1 2.</_>
        <_>
          9 25 1 1 2.</_></rects>
      <tilted>0</tilted></_>
    <_>
      <rects>
        <_>
          9 0 2 3 -1.</_>
        <_>
          10 0 1 3 2.</_></rects>
      <tilted>0</tilted></_>
    <_>
      <rects>
        <_>
          9 0 1 26 -1.</_>
        <_>
          9 13 1 13 2.</_></rects>
      <tilted>0</tilted></_>
    <_>
      <rects>
        <_>
          9 10 1 12 -1.</_>
        <_>
          9 14 1 4 3.</_></rects>
      <tilted>0</tilted></_>
    <_>
      <rects>
        <_>
          9 11 2 2 -1.</_>
        <_>
          9 12 2 1 2.</_></rects>
      <tilted>0</tilted></_>
    <_>
      <rects>
        <_>
          9 11 14 2 -1.</_>
        <_>
          9 11 7 1 2.</_>
        <_>
          16 12 7 1 2.</_></rects>
      <tilted>0</tilted></_>
    <_>
      <rects>
        <_>
          9 26 1 2 -1.</_>
        <_>
          9 27 1 1 2.</_></rects>
      <tilted>0</tilted></_>
    <_>
      <rects>
        <_>
          10 12 11 9 -1.</_>
        <_>
          10 15 11 3 3.</_></rects>
      <tilted>0</tilted></_>
    <_>
      <rects>
        <_>
          10 16 6 3 -1.</_>
        <_>
          10 17 6 1 3.</_></rects>
      <tilted>0</tilted></_>
    <_>
      <rects>
        <_>
          11 4 6 28 -1.</_>
        <_>
          14 4 3 28 2.</_></rects>
      <tilted>0</tilted></_>
    <_>
      <rects>
        <_>
          11 16 6 3 -1.</_>
        <_>
          11 17 6 1 3.</_></rects>
      <tilted>0</tilted></_>
    <_>
      <rects>
        <_>
          11 20 6 6 -1.</_>
        <_>
          11 22 6 2 3.</_></rects>
      <tilted>0</tilted></_>
    <_>
      <rects>
        <_>
          12 0 11 18 -1.</_>
        <_>
          12 6 11 6 3.</_></rects>
      <tilted>0</tilted></_>
    <_>
      <rects>
        <_>
          12 5 18 3 -1.</_>
        <_>
          12 6 18 1 3.</_></rects>
      <tilted>0</tilted></_>
    <_>
      <rects>
        <_>
          12 24 20 3 -1.</_>
        <_>
          12 25 20 1 3.</_></rects>
      <tilted>0</tilted></_>
    <_>
      <rects>
        <_>
          13 2 2 2 -1.</_>
        <_>
          14 2 1 2 2.</_></rects>
      <tilted>0</tilted></_>
    <_>
      <rects>
        <_>
          13 2 15 12 -1.</_>
        <_>
          13 6 15 4 3.</_></rects>
      <tilted>0</tilted></_>
    <_>
      <rects>
        <_>
          13 7 3 3 -1.</_>
        <_>
          14 7 1 3 3.</_></rects>
      <tilted>0</tilted></_>
    <_>
      <rects>
        <_>
          13 13 2 3 -1.</_>
        <_>
          13 14 2 1 3.</_></rects>
      <tilted>0</tilted></_>
    <_>
      <rects>
        <_>
          13 17 8 3 -1.</_>
        <_>
          13 18 8 1 3.</_></rects>
      <tilted>0</tilted></_>
    <_>
      <rects>
        <_>
          13 19 12 8 -1.</_>
        <_>
          13 19 6 4 2.</_>
        <_>
          19 23 6 4 2.</_></rects>
      <tilted>0</tilted></_>
    <_>
      <rects>
        <_>
          14 12 18 4 -1.</_>
        <_>
          14 12 9 2 2.</_>
        <_>
          23 14 9 2 2.</_></rects>
      <tilted>0</tilted></_>
    <_>
      <rects>
        <_>
          14 13 7 2 -1.</_>
        <_>
          14 14 7 1 2.</_></rects>
      <tilted>0</tilted></_>
    <_>
      <rects>
        <_>
          15 5 2 2 -1.</_>
        <_>
          15 6 2 1 2.</_></rects>
      <tilted>0</tilted></_>
    <_>
      <rects>
        <_>
          15 9 17 3 -1.</_>
        <_>
          15 10 17 1 3.</_></rects>
      <tilted>0</tilted></_>
    <_>
      <rects>
        <_>
          15 13 8 6 -1.</_>
        <_>
          15 15 8 2 3.</_></rects>
      <tilted>0</tilted></_>
    <_>
      <rects>
        <_>
          15 17 9 15 -1.</_>
        <_>
          15 22 9 5 3.</_></rects>
      <tilted>0</tilted></_>
    <_>
      <rects>
        <_>
          16 15 7 3 -1.</_>
        <_>
          16 16 7 1 3.</_></rects>
      <tilted>0</tilted></_>
    <_>
      <rects>
        <_>
          16 17 2 6 -1.</_>
        <_>
          16 19 2 2 3.</_></rects>
      <tilted>0</tilted></_>
    <_>
      <rects>
        <_>
          16 19 2 2 -1.</_>
        <_>
          16 19 1 1 2.</_>
        <_>
          17 20 1 1 2.</_></rects>
      <tilted>0</tilted></_>
    <_>
      <rects>
        <_>
          16 27 10 3 -1.</_>
        <_>
          16 28 10 1 3.</_></rects>
      <tilted>0</tilted></_>
    <_>
      <rects>
        <_>
          16 31 10 1 -1.</_>
        <_>
          21 31 5 1 2.</_></rects>
      <tilted>0</tilted></_>
    <_>
      <rects>
        <_>
          17 5 7 15 -1.</_>
        <_>
          17 10 7 5 3.</_></rects>
      <tilted>0</tilted></_>
    <_>
      <rects>
        <_>
          17 8 6 2 -1.</_>
        <_>
          19 8 2 2 3.</_></rects>
      <tilted>0</tilted></_>
    <_>
      <rects>
        <_>
          17 17 8 2 -1.</_>
        <_>
          17 17 4 1 2.</_>
        <_>
          21 18 4 1 2.</_></rects>
      <tilted>0</tilted></_>
    <_>
      <rects>
        <_>
          17 22 2 2 -1.</_>
        <_>
          17 22 1 1 2.</_>
        <_>
          18 23 1 1 2.</_></rects>
      <tilted>0</tilted></_>
    <_>
      <rects>
        <_>
          17 22 15 5 -1.</_>
        <_>
          22 22 5 5 3.</_></rects>
      <tilted>0</tilted></_>
    <_>
      <rects>
        <_>
          18 2 14 6 -1.</_>
        <_>
          25 2 7 6 2.</_></rects>
      <tilted>0</tilted></_>
    <_>
      <rects>
        <_>
          18 3 3 6 -1.</_>
        <_>
          19 3 1 6 3.</_></rects>
      <tilted>0</tilted></_>
    <_>
      <rects>
        <_>
          18 4 3 5 -1.</_>
        <_>
          19 4 1 5 3.</_></rects>
      <tilted>0</tilted></_>
    <_>
      <rects>
        <_>
          18 4 6 15 -1.</_>
        <_>
          18 9 6 5 3.</_></rects>
      <tilted>0</tilted></_>
    <_>
      <rects>
        <_>
          18 12 14 18 -1.</_>
        <_>
          18 12 7 9 2.</_>
        <_>
          25 21 7 9 2.</_></rects>
      <tilted>0</tilted></_>
    <_>
      <rects>
        <_>
          18 14 9 8 -1.</_>
        <_>
          21 14 3 8 3.</_></rects>
      <tilted>0</tilted></_>
    <_>
      <rects>
        <_>
          18 14 10 2 -1.</_>
        <_>
          18 15 10 1 2.</_></rects>
      <tilted>0</tilted></_>
    <_>
      <rects>
        <_>
          19 12 2 7 -1.</_>
        <_>
          20 12 1 7 2.</_></rects>
      <tilted>0</tilted></_>
    <_>
      <rects>
        <_>
          20 7 2 7 -1.</_>
        <_>
          21 7 1 7 2.</_></rects>
      <tilted>0</tilted></_>
    <_>
      <rects>
        <_>
          20 14 12 6 -1.</_>
        <_>
          20 14 6 3 2.</_>
        <_>
          26 17 6 3 2.</_></rects>
      <tilted>0</tilted></_>
    <_>
      <rects>
        <_>
          22 0 10 14 -1.</_>
        <_>
          22 0 5 7 2.</_>
        <_>
          27 7 5 7 2.</_></rects>
      <tilted>0</tilted></_>
    <_>
      <rects>
        <_>
          22 15 5 3 -1.</_>
        <_>
          22 16 5 1 3.</_></rects>
      <tilted>0</tilted></_>
    <_>
      <rects>
        <_>
          22 19 3 4 -1.</_>
        <_>
          22 21 3 2 2.</_></rects>
      <tilted>0</tilted></_>
    <_>
      <rects>
        <_>
          22 20 10 10 -1.</_>
        <_>
          27 20 5 10 2.</_></rects>
      <tilted>0</tilted></_>
    <_>
      <rects>
        <_>
          23 1 4 3 -1.</_>
        <_>
          23 2 4 1 3.</_></rects>
      <tilted>0</tilted></_>
    <_>
      <rects>
        <_>
          23 12 2 10 -1.</_>
        <_>
          23 17 2 5 2.</_></rects>
      <tilted>0</tilted></_>
    <_>
      <rects>
        <_>
          23 14 6 3 -1.</_>
        <_>
          23 15 6 1 3.</_></rects>
      <tilted>0</tilted></_>
    <_>
      <rects>
        <_>
          23 29 3 1 -1.</_>
        <_>
          24 29 1 1 3.</_></rects>
      <tilted>0</tilted></_>
    <_>
      <rects>
        <_>
          24 11 2 2 -1.</_>
        <_>
          24 11 1 1 2.</_>
        <_>
          25 12 1 1 2.</_></rects>
      <tilted>0</tilted></_>
    <_>
      <rects>
        <_>
          24 19 5 6 -1.</_>
        <_>
          24 22 5 3 2.</_></rects>
      <tilted>0</tilted></_>
    <_>
      <rects>
        <_>
          25 5 6 5 -1.</_>
        <_>
          27 5 2 5 3.</_></rects>
      <tilted>0</tilted></_>
    <_>
      <rects>
        <_>
          25 30 2 2 -1.</_>
        <_>
          25 30 1 1 2.</_>
        <_>
          26 31 1 1 2.</_></rects>
      <tilted>0</tilted></_>
    <_>
      <rects>
        <_>
          27 5 2 3 -1.</_>
        <_>
          27 6 2 1 3.</_></rects>
      <tilted>0</tilted></_>
    <_>
      <rects>
        <_>
          28 9 3 9 -1.</_>
        <_>
          29 9 1 9 3.</_></rects>
      <tilted>0</tilted></_>
    <_>
      <rects>
        <_>
          28 24 2 8 -1.</_>
        <_>
          28 24 1 4 2.</_>
        <_>
          29 28 1 4 2.</_></rects>
      <tilted>0</tilted></_>
    <_>
      <rects>
        <_>
          29 5 2 1 -1.</_>
        <_>
          30 5 1 1 2.</_></rects>
      <tilted>0</tilted></_>
    <_>
      <rects>
        <_>
          29 10 3 22 -1.</_>
        <_>
          30 10 1 22 3.</_></rects>
      <tilted>0</tilted></_>
    <_>
      <rects>
        <_>
          29 13 2 1 -1.</_>
        <_>
          30 13 1 1 2.</_></rects>
      <tilted>0</tilted></_>
    <_>
      <rects>
        <_>
          29 16 2 1 -1.</_>
        <_>
          30 16 1 1 2.</_></rects>
      <tilted>0</tilted></_>
    <_>
      <rects>
        <_>
          30 10 2 22 -1.</_>
        <_>
          30 10 1 11 2.</_>
        <_>
          31 21 1 11 2.</_></rects>
      <tilted>0</tilted></_>
    <_>
      <rects>
        <_>
          31 29 1 3 -1.</_>
        <_>
          31 30 1 1 3.</_></rects>
      <tilted>0</tilted></_></features></cascade>
</opencv_storage>
